<?xml version="1.0" encoding="UTF-8" standalone="yes"?>
<PMML xmlns="http://www.dmg.org/PMML-4_3" version="4.3">
	<Header>
		<Application name="JPMML-SkLearn" version="1.4-SNAPSHOT"/>
		<Timestamp>2017-11-07T17:29:33Z</Timestamp>
	</Header>
	<DataDictionary>
		<DataField name="y" optype="categorical" dataType="integer">
			<Value value="0"/>
			<Value value="1"/>
		</DataField>
		<DataField name="Pclass" optype="continuous" dataType="float"/>
		<DataField name="Age" optype="continuous" dataType="float"/>
		<DataField name="SibSp" optype="continuous" dataType="float"/>
		<DataField name="Fare" optype="continuous" dataType="float"/>
		<DataField name="Female" optype="continuous" dataType="float"/>
	</DataDictionary>
	<MiningModel functionName="classification" x-mathContext="float">
		<MiningSchema>
			<MiningField name="y" usageType="target"/>
			<MiningField name="Pclass"/>
			<MiningField name="Age"/>
			<MiningField name="Fare"/>
			<MiningField name="Female"/>
			<MiningField name="SibSp"/>
		</MiningSchema>
		<Segmentation multipleModelMethod="modelChain">
			<Segment id="1">
				<True/>
				<MiningModel functionName="regression" x-mathContext="float">
					<MiningSchema>
						<MiningField name="Pclass"/>
						<MiningField name="Age"/>
						<MiningField name="Fare"/>
						<MiningField name="Female"/>
						<MiningField name="SibSp"/>
					</MiningSchema>
					<Output>
						<OutputField name="xgbValue" optype="continuous" dataType="float" feature="predictedValue" isFinalResult="false"/>
					</Output>
					<Segmentation multipleModelMethod="sum">
						<Segment id="1">
							<True/>
							<TreeModel functionName="regression" missingValueStrategy="defaultChild" splitCharacteristic="binarySplit" x-mathContext="float">
								<MiningSchema>
									<MiningField name="Pclass"/>
									<MiningField name="Age"/>
									<MiningField name="SibSp"/>
									<MiningField name="Fare"/>
									<MiningField name="Female"/>
								</MiningSchema>
								<Node id="1" defaultChild="2">
									<True/>
									<Node id="2" defaultChild="4">
										<SimplePredicate field="Female" operator="lessThan" value="0.5"/>
										<Node id="4" defaultChild="8">
											<SimplePredicate field="Fare" operator="lessThan" value="26.26875"/>
											<Node id="8" score="0.120000005">
												<SimplePredicate field="Age" operator="lessThan" value="13.5"/>
											</Node>
											<Node id="9" score="-0.15750001">
												<SimplePredicate field="Age" operator="greaterOrEqual" value="13.5"/>
											</Node>
										</Node>
										<Node id="5" defaultChild="10">
											<SimplePredicate field="Fare" operator="greaterOrEqual" value="26.26875"/>
											<Node id="10" score="-0.040677965">
												<SimplePredicate field="SibSp" operator="lessThan" value="2.5"/>
											</Node>
											<Node id="11" score="-0.15">
												<SimplePredicate field="SibSp" operator="greaterOrEqual" value="2.5"/>
											</Node>
										</Node>
									</Node>
									<Node id="3" defaultChild="6">
										<SimplePredicate field="Female" operator="greaterOrEqual" value="0.5"/>
										<Node id="6" score="0.17352942">
											<SimplePredicate field="Pclass" operator="lessThan" value="2.5"/>
										</Node>
										<Node id="7" defaultChild="12">
											<SimplePredicate field="Pclass" operator="greaterOrEqual" value="2.5"/>
											<Node id="12" score="0.05">
												<SimplePredicate field="Fare" operator="lessThan" value="24.80835"/>
											</Node>
											<Node id="13" score="-0.14782609">
												<SimplePredicate field="Fare" operator="greaterOrEqual" value="24.80835"/>
											</Node>
										</Node>
									</Node>
								</Node>
							</TreeModel>
						</Segment>
						<Segment id="2">
							<True/>
							<TreeModel functionName="regression" missingValueStrategy="defaultChild" splitCharacteristic="binarySplit" x-mathContext="float">
								<MiningSchema>
									<MiningField name="Pclass"/>
									<MiningField name="Age"/>
									<MiningField name="Fare"/>
									<MiningField name="Female"/>
								</MiningSchema>
								<Node id="1" defaultChild="2">
									<True/>
									<Node id="2" defaultChild="4">
										<SimplePredicate field="Female" operator="lessThan" value="0.5"/>
										<Node id="4" defaultChild="8">
											<SimplePredicate field="Pclass" operator="lessThan" value="1.5"/>
											<Node id="8" score="-0.022706902">
												<SimplePredicate field="Age" operator="lessThan" value="53.0"/>
											</Node>
											<Node id="9" score="-0.112857856">
												<SimplePredicate field="Age" operator="greaterOrEqual" value="53.0"/>
											</Node>
										</Node>
										<Node id="5" defaultChild="10">
											<SimplePredicate field="Pclass" operator="greaterOrEqual" value="1.5"/>
											<Node id="10" score="0.01040637">
												<SimplePredicate field="Age" operator="lessThan" value="9.5"/>
											</Node>
											<Node id="11" score="-0.13910218">
												<SimplePredicate field="Age" operator="greaterOrEqual" value="9.5"/>
											</Node>
										</Node>
									</Node>
									<Node id="3" defaultChild="6">
										<SimplePredicate field="Female" operator="greaterOrEqual" value="0.5"/>
										<Node id="6" score="0.15787679">
											<SimplePredicate field="Pclass" operator="lessThan" value="2.5"/>
										</Node>
										<Node id="7" defaultChild="12">
											<SimplePredicate field="Pclass" operator="greaterOrEqual" value="2.5"/>
											<Node id="12" score="0.045220487">
												<SimplePredicate field="Fare" operator="lessThan" value="24.80835"/>
											</Node>
											<Node id="13" score="-0.13624923">
												<SimplePredicate field="Fare" operator="greaterOrEqual" value="24.80835"/>
											</Node>
										</Node>
									</Node>
								</Node>
							</TreeModel>
						</Segment>
						<Segment id="3">
							<True/>
							<TreeModel functionName="regression" missingValueStrategy="defaultChild" splitCharacteristic="binarySplit" x-mathContext="float">
								<MiningSchema>
									<MiningField name="Pclass"/>
									<MiningField name="Age"/>
									<MiningField name="Fare"/>
									<MiningField name="Female"/>
								</MiningSchema>
								<Node id="1" defaultChild="2">
									<True/>
									<Node id="2" defaultChild="4">
										<SimplePredicate field="Female" operator="lessThan" value="0.5"/>
										<Node id="4" defaultChild="8">
											<SimplePredicate field="Pclass" operator="lessThan" value="1.5"/>
											<Node id="8" score="-0.13022816">
												<SimplePredicate field="Fare" operator="lessThan" value="26.14375"/>
											</Node>
											<Node id="9" score="-0.025419464">
												<SimplePredicate field="Fare" operator="greaterOrEqual" value="26.14375"/>
											</Node>
										</Node>
										<Node id="5" defaultChild="10">
											<SimplePredicate field="Pclass" operator="greaterOrEqual" value="1.5"/>
											<Node id="10" score="0.0095191635">
												<SimplePredicate field="Age" operator="lessThan" value="9.5"/>
											</Node>
											<Node id="11" score="-0.1273324">
												<SimplePredicate field="Age" operator="greaterOrEqual" value="9.5"/>
											</Node>
										</Node>
									</Node>
									<Node id="3" defaultChild="6">
										<SimplePredicate field="Female" operator="greaterOrEqual" value="0.5"/>
										<Node id="6" score="0.14546138">
											<SimplePredicate field="Pclass" operator="lessThan" value="2.5"/>
										</Node>
										<Node id="7" defaultChild="12">
											<SimplePredicate field="Pclass" operator="greaterOrEqual" value="2.5"/>
											<Node id="12" score="0.040940195">
												<SimplePredicate field="Fare" operator="lessThan" value="24.80835"/>
											</Node>
											<Node id="13" score="-0.12659737">
												<SimplePredicate field="Fare" operator="greaterOrEqual" value="24.80835"/>
											</Node>
										</Node>
									</Node>
								</Node>
							</TreeModel>
						</Segment>
						<Segment id="4">
							<True/>
							<TreeModel functionName="regression" missingValueStrategy="defaultChild" splitCharacteristic="binarySplit" x-mathContext="float">
								<MiningSchema>
									<MiningField name="Pclass"/>
									<MiningField name="Age"/>
									<MiningField name="Fare"/>
									<MiningField name="Female"/>
								</MiningSchema>
								<Node id="1" defaultChild="2">
									<True/>
									<Node id="2" defaultChild="4">
										<SimplePredicate field="Female" operator="lessThan" value="0.5"/>
										<Node id="4" defaultChild="8">
											<SimplePredicate field="Pclass" operator="lessThan" value="1.5"/>
											<Node id="8" score="-0.017097091">
												<SimplePredicate field="Age" operator="lessThan" value="53.0"/>
											</Node>
											<Node id="9" score="-0.101696625">
												<SimplePredicate field="Age" operator="greaterOrEqual" value="53.0"/>
											</Node>
										</Node>
										<Node id="5" defaultChild="10">
											<SimplePredicate field="Pclass" operator="greaterOrEqual" value="1.5"/>
											<Node id="10" score="0.008708039">
												<SimplePredicate field="Age" operator="lessThan" value="9.5"/>
											</Node>
											<Node id="11" score="-0.1174184">
												<SimplePredicate field="Age" operator="greaterOrEqual" value="9.5"/>
											</Node>
										</Node>
									</Node>
									<Node id="3" defaultChild="6">
										<SimplePredicate field="Female" operator="greaterOrEqual" value="0.5"/>
										<Node id="6" defaultChild="12">
											<SimplePredicate field="Pclass" operator="lessThan" value="2.5"/>
											<Node id="12" score="0.041940913">
												<SimplePredicate field="Fare" operator="lessThan" value="11.25"/>
											</Node>
											<Node id="13" score="0.13749841">
												<SimplePredicate field="Fare" operator="greaterOrEqual" value="11.25"/>
											</Node>
										</Node>
										<Node id="7" defaultChild="14">
											<SimplePredicate field="Pclass" operator="greaterOrEqual" value="2.5"/>
											<Node id="14" score="0.037092607">
												<SimplePredicate field="Fare" operator="lessThan" value="24.80835"/>
											</Node>
											<Node id="15" score="-0.11837985">
												<SimplePredicate field="Fare" operator="greaterOrEqual" value="24.80835"/>
											</Node>
										</Node>
									</Node>
								</Node>
							</TreeModel>
						</Segment>
						<Segment id="5">
							<True/>
							<TreeModel functionName="regression" missingValueStrategy="defaultChild" splitCharacteristic="binarySplit" x-mathContext="float">
								<MiningSchema>
									<MiningField name="Pclass"/>
									<MiningField name="Age"/>
									<MiningField name="SibSp"/>
									<MiningField name="Fare"/>
									<MiningField name="Female"/>
								</MiningSchema>
								<Node id="1" defaultChild="2">
									<True/>
									<Node id="2" defaultChild="4">
										<SimplePredicate field="Female" operator="lessThan" value="0.5"/>
										<Node id="4" defaultChild="8">
											<SimplePredicate field="Fare" operator="lessThan" value="26.26875"/>
											<Node id="8" score="0.11524098">
												<SimplePredicate field="Age" operator="lessThan" value="13.5"/>
											</Node>
											<Node id="9" score="-0.1135849">
												<SimplePredicate field="Age" operator="greaterOrEqual" value="13.5"/>
											</Node>
										</Node>
										<Node id="5" defaultChild="10">
											<SimplePredicate field="Fare" operator="greaterOrEqual" value="26.26875"/>
											<Node id="10" score="-0.022553151">
												<SimplePredicate field="SibSp" operator="lessThan" value="2.5"/>
											</Node>
											<Node id="11" score="-0.13073006">
												<SimplePredicate field="SibSp" operator="greaterOrEqual" value="2.5"/>
											</Node>
										</Node>
									</Node>
									<Node id="3" defaultChild="6">
										<SimplePredicate field="Female" operator="greaterOrEqual" value="0.5"/>
										<Node id="6" defaultChild="12">
											<SimplePredicate field="Pclass" operator="lessThan" value="2.5"/>
											<Node id="12" score="0.03990072">
												<SimplePredicate field="Fare" operator="lessThan" value="11.25"/>
											</Node>
											<Node id="13" score="0.12890542">
												<SimplePredicate field="Fare" operator="greaterOrEqual" value="11.25"/>
											</Node>
										</Node>
										<Node id="7" defaultChild="14">
											<SimplePredicate field="Pclass" operator="greaterOrEqual" value="2.5"/>
											<Node id="14" score="0.033623975">
												<SimplePredicate field="Fare" operator="lessThan" value="24.80835"/>
											</Node>
											<Node id="15" score="-0.111255996">
												<SimplePredicate field="Fare" operator="greaterOrEqual" value="24.80835"/>
											</Node>
										</Node>
									</Node>
								</Node>
							</TreeModel>
						</Segment>
						<Segment id="6">
							<True/>
							<TreeModel functionName="regression" missingValueStrategy="defaultChild" splitCharacteristic="binarySplit" x-mathContext="float">
								<MiningSchema>
									<MiningField name="Pclass"/>
									<MiningField name="Age"/>
									<MiningField name="SibSp"/>
									<MiningField name="Fare"/>
									<MiningField name="Female"/>
								</MiningSchema>
								<Node id="1" defaultChild="2">
									<True/>
									<Node id="2" defaultChild="4">
										<SimplePredicate field="Female" operator="lessThan" value="0.5"/>
										<Node id="4" defaultChild="8">
											<SimplePredicate field="Age" operator="lessThan" value="9.5"/>
											<Node id="8" score="0.14233856">
												<SimplePredicate field="SibSp" operator="lessThan" value="2.5"/>
											</Node>
											<Node id="9" score="-0.10745932">
												<SimplePredicate field="SibSp" operator="greaterOrEqual" value="2.5"/>
											</Node>
										</Node>
										<Node id="5" defaultChild="10">
											<SimplePredicate field="Age" operator="greaterOrEqual" value="9.5"/>
											<Node id="10" score="-0.10508298">
												<SimplePredicate field="Fare" operator="lessThan" value="26.26875"/>
											</Node>
											<Node id="11" score="-0.036176424">
												<SimplePredicate field="Fare" operator="greaterOrEqual" value="26.26875"/>
											</Node>
										</Node>
									</Node>
									<Node id="3" defaultChild="6">
										<SimplePredicate field="Female" operator="greaterOrEqual" value="0.5"/>
										<Node id="6" defaultChild="12">
											<SimplePredicate field="Pclass" operator="lessThan" value="2.5"/>
											<Node id="12" score="0.07034412">
												<SimplePredicate field="Fare" operator="lessThan" value="13.25"/>
											</Node>
											<Node id="13" score="0.12586547">
												<SimplePredicate field="Fare" operator="greaterOrEqual" value="13.25"/>
											</Node>
										</Node>
										<Node id="7" defaultChild="14">
											<SimplePredicate field="Pclass" operator="greaterOrEqual" value="2.5"/>
											<Node id="14" score="0.03049005">
												<SimplePredicate field="Fare" operator="lessThan" value="24.80835"/>
											</Node>
											<Node id="15" score="-0.10498234">
												<SimplePredicate field="Fare" operator="greaterOrEqual" value="24.80835"/>
											</Node>
										</Node>
									</Node>
								</Node>
							</TreeModel>
						</Segment>
						<Segment id="7">
							<True/>
							<TreeModel functionName="regression" missingValueStrategy="defaultChild" splitCharacteristic="binarySplit" x-mathContext="float">
								<MiningSchema>
									<MiningField name="Pclass"/>
									<MiningField name="Age"/>
									<MiningField name="Fare"/>
									<MiningField name="Female"/>
								</MiningSchema>
								<Node id="1" defaultChild="2">
									<True/>
									<Node id="2" defaultChild="4">
										<SimplePredicate field="Female" operator="lessThan" value="0.5"/>
										<Node id="4" defaultChild="8">
											<SimplePredicate field="Fare" operator="lessThan" value="7.9104004"/>
											<Node id="8" score="-0.08133291">
												<SimplePredicate field="Age" operator="lessThan" value="27.5"/>
											</Node>
											<Node id="9" score="-0.12608093">
												<SimplePredicate field="Age" operator="greaterOrEqual" value="27.5"/>
											</Node>
										</Node>
										<Node id="5" defaultChild="10">
											<SimplePredicate field="Fare" operator="greaterOrEqual" value="7.9104004"/>
											<Node id="10" score="0.036832955">
												<SimplePredicate field="Age" operator="lessThan" value="6.5"/>
											</Node>
											<Node id="11" score="-0.061450105">
												<SimplePredicate field="Age" operator="greaterOrEqual" value="6.5"/>
											</Node>
										</Node>
									</Node>
									<Node id="3" defaultChild="6">
										<SimplePredicate field="Female" operator="greaterOrEqual" value="0.5"/>
										<Node id="6" defaultChild="12">
											<SimplePredicate field="Pclass" operator="lessThan" value="2.5"/>
											<Node id="12" score="0.119846456">
												<SimplePredicate field="Age" operator="lessThan" value="43.5"/>
											</Node>
											<Node id="13" score="0.06694722">
												<SimplePredicate field="Age" operator="greaterOrEqual" value="43.5"/>
											</Node>
										</Node>
										<Node id="7" defaultChild="14">
											<SimplePredicate field="Pclass" operator="greaterOrEqual" value="2.5"/>
											<Node id="14" score="0.027653847">
												<SimplePredicate field="Fare" operator="lessThan" value="24.80835"/>
											</Node>
											<Node id="15" score="-0.09938099">
												<SimplePredicate field="Fare" operator="greaterOrEqual" value="24.80835"/>
											</Node>
										</Node>
									</Node>
								</Node>
							</TreeModel>
						</Segment>
						<Segment id="8">
							<True/>
							<TreeModel functionName="regression" missingValueStrategy="defaultChild" splitCharacteristic="binarySplit" x-mathContext="float">
								<MiningSchema>
									<MiningField name="Pclass"/>
									<MiningField name="Age"/>
									<MiningField name="Fare"/>
									<MiningField name="Female"/>
								</MiningSchema>
								<Node id="1" defaultChild="2">
									<True/>
									<Node id="2" defaultChild="4">
										<SimplePredicate field="Female" operator="lessThan" value="0.5"/>
										<Node id="4" defaultChild="8">
											<SimplePredicate field="Pclass" operator="lessThan" value="1.5"/>
											<Node id="8" score="-0.0026720671">
												<SimplePredicate field="Age" operator="lessThan" value="53.0"/>
											</Node>
											<Node id="9" score="-0.08538648">
												<SimplePredicate field="Age" operator="greaterOrEqual" value="53.0"/>
											</Node>
										</Node>
										<Node id="5" defaultChild="10">
											<SimplePredicate field="Pclass" operator="greaterOrEqual" value="1.5"/>
											<Node id="10" score="0.008747779">
												<SimplePredicate field="Age" operator="lessThan" value="9.5"/>
											</Node>
											<Node id="11" score="-0.08978107">
												<SimplePredicate field="Age" operator="greaterOrEqual" value="9.5"/>
											</Node>
										</Node>
									</Node>
									<Node id="3" defaultChild="6">
										<SimplePredicate field="Female" operator="greaterOrEqual" value="0.5"/>
										<Node id="6" defaultChild="12">
											<SimplePredicate field="Pclass" operator="lessThan" value="2.5"/>
											<Node id="12" score="0.07904867">
												<SimplePredicate field="Fare" operator="lessThan" value="28.85625"/>
											</Node>
											<Node id="13" score="0.12277497">
												<SimplePredicate field="Fare" operator="greaterOrEqual" value="28.85625"/>
											</Node>
										</Node>
										<Node id="7" defaultChild="14">
											<SimplePredicate field="Pclass" operator="greaterOrEqual" value="2.5"/>
											<Node id="14" score="0.07228474">
												<SimplePredicate field="Fare" operator="lessThan" value="7.9021"/>
											</Node>
											<Node id="15" score="-0.023849286">
												<SimplePredicate field="Fare" operator="greaterOrEqual" value="7.9021"/>
											</Node>
										</Node>
									</Node>
								</Node>
							</TreeModel>
						</Segment>
						<Segment id="9">
							<True/>
							<TreeModel functionName="regression" missingValueStrategy="defaultChild" splitCharacteristic="binarySplit" x-mathContext="float">
								<MiningSchema>
									<MiningField name="Pclass"/>
									<MiningField name="Age"/>
									<MiningField name="Fare"/>
									<MiningField name="Female"/>
								</MiningSchema>
								<Node id="1" defaultChild="2">
									<True/>
									<Node id="2" defaultChild="4">
										<SimplePredicate field="Female" operator="lessThan" value="0.5"/>
										<Node id="4" defaultChild="8">
											<SimplePredicate field="Fare" operator="lessThan" value="7.9104004"/>
											<Node id="8" score="-0.070339285">
												<SimplePredicate field="Age" operator="lessThan" value="27.5"/>
											</Node>
											<Node id="9" score="-0.11585825">
												<SimplePredicate field="Age" operator="greaterOrEqual" value="27.5"/>
											</Node>
										</Node>
										<Node id="5" defaultChild="10">
											<SimplePredicate field="Fare" operator="greaterOrEqual" value="7.9104004"/>
											<Node id="10" score="-0.012365214">
												<SimplePredicate field="Pclass" operator="lessThan" value="1.5"/>
											</Node>
											<Node id="11" score="-0.06194505">
												<SimplePredicate field="Pclass" operator="greaterOrEqual" value="1.5"/>
											</Node>
										</Node>
									</Node>
									<Node id="3" defaultChild="6">
										<SimplePredicate field="Female" operator="greaterOrEqual" value="0.5"/>
										<Node id="6" defaultChild="12">
											<SimplePredicate field="Pclass" operator="lessThan" value="2.5"/>
											<Node id="12" score="0.054037403">
												<SimplePredicate field="Fare" operator="lessThan" value="13.25"/>
											</Node>
											<Node id="13" score="0.10937422">
												<SimplePredicate field="Fare" operator="greaterOrEqual" value="13.25"/>
											</Node>
										</Node>
										<Node id="7" defaultChild="14">
											<SimplePredicate field="Pclass" operator="greaterOrEqual" value="2.5"/>
											<Node id="14" score="0.0242883">
												<SimplePredicate field="Fare" operator="lessThan" value="24.80835"/>
											</Node>
											<Node id="15" score="-0.0931351">
												<SimplePredicate field="Fare" operator="greaterOrEqual" value="24.80835"/>
											</Node>
										</Node>
									</Node>
								</Node>
							</TreeModel>
						</Segment>
						<Segment id="10">
							<True/>
							<TreeModel functionName="regression" missingValueStrategy="defaultChild" splitCharacteristic="binarySplit" x-mathContext="float">
								<MiningSchema>
									<MiningField name="Pclass"/>
									<MiningField name="Age"/>
									<MiningField name="Fare"/>
									<MiningField name="Female"/>
								</MiningSchema>
								<Node id="1" defaultChild="2">
									<True/>
									<Node id="2" defaultChild="4">
										<SimplePredicate field="Female" operator="lessThan" value="0.5"/>
										<Node id="4" defaultChild="8">
											<SimplePredicate field="Fare" operator="lessThan" value="7.9104004"/>
											<Node id="8" score="-0.06586189">
												<SimplePredicate field="Age" operator="lessThan" value="27.5"/>
											</Node>
											<Node id="9" score="-0.110675715">
												<SimplePredicate field="Age" operator="greaterOrEqual" value="27.5"/>
											</Node>
										</Node>
										<Node id="5" defaultChild="10">
											<SimplePredicate field="Fare" operator="greaterOrEqual" value="7.9104004"/>
											<Node id="10" score="0.0378108">
												<SimplePredicate field="Age" operator="lessThan" value="6.5"/>
											</Node>
											<Node id="11" score="-0.047855742">
												<SimplePredicate field="Age" operator="greaterOrEqual" value="6.5"/>
											</Node>
										</Node>
									</Node>
									<Node id="3" defaultChild="6">
										<SimplePredicate field="Female" operator="greaterOrEqual" value="0.5"/>
										<Node id="6" defaultChild="12">
											<SimplePredicate field="Pclass" operator="lessThan" value="2.5"/>
											<Node id="12" score="0.0691218">
												<SimplePredicate field="Fare" operator="lessThan" value="28.85625"/>
											</Node>
											<Node id="13" score="0.11384922">
												<SimplePredicate field="Fare" operator="greaterOrEqual" value="28.85625"/>
											</Node>
										</Node>
										<Node id="7" defaultChild="14">
											<SimplePredicate field="Pclass" operator="greaterOrEqual" value="2.5"/>
											<Node id="14" score="0.022031361">
												<SimplePredicate field="Fare" operator="lessThan" value="24.80835"/>
											</Node>
											<Node id="15" score="-0.088609">
												<SimplePredicate field="Fare" operator="greaterOrEqual" value="24.80835"/>
											</Node>
										</Node>
									</Node>
								</Node>
							</TreeModel>
						</Segment>
						<Segment id="11">
							<True/>
							<TreeModel functionName="regression" missingValueStrategy="defaultChild" splitCharacteristic="binarySplit" x-mathContext="float">
								<MiningSchema>
									<MiningField name="Pclass"/>
									<MiningField name="Age"/>
									<MiningField name="Fare"/>
									<MiningField name="Female"/>
								</MiningSchema>
								<Node id="1" defaultChild="2">
									<True/>
									<Node id="2" defaultChild="4">
										<SimplePredicate field="Female" operator="lessThan" value="0.5"/>
										<Node id="4" defaultChild="8">
											<SimplePredicate field="Fare" operator="lessThan" value="52.2771"/>
											<Node id="8" score="0.012278762">
												<SimplePredicate field="Age" operator="lessThan" value="9.5"/>
											</Node>
											<Node id="9" score="-0.06960891">
												<SimplePredicate field="Age" operator="greaterOrEqual" value="9.5"/>
											</Node>
										</Node>
										<Node id="5" defaultChild="10">
											<SimplePredicate field="Fare" operator="greaterOrEqual" value="52.2771"/>
											<Node id="10" score="0.11854829">
												<SimplePredicate field="Fare" operator="lessThan" value="59.0875"/>
											</Node>
											<Node id="11" score="-0.042619523">
												<SimplePredicate field="Fare" operator="greaterOrEqual" value="59.0875"/>
											</Node>
										</Node>
									</Node>
									<Node id="3" defaultChild="6">
										<SimplePredicate field="Female" operator="greaterOrEqual" value="0.5"/>
										<Node id="6" defaultChild="12">
											<SimplePredicate field="Pclass" operator="lessThan" value="2.5"/>
											<Node id="12" score="0.10132219">
												<SimplePredicate field="Age" operator="lessThan" value="43.5"/>
											</Node>
											<Node id="13" score="0.044820596">
												<SimplePredicate field="Age" operator="greaterOrEqual" value="43.5"/>
											</Node>
										</Node>
										<Node id="7" defaultChild="14">
											<SimplePredicate field="Pclass" operator="greaterOrEqual" value="2.5"/>
											<Node id="14" score="0.06284645">
												<SimplePredicate field="Fare" operator="lessThan" value="7.9021"/>
											</Node>
											<Node id="15" score="-0.022273542">
												<SimplePredicate field="Fare" operator="greaterOrEqual" value="7.9021"/>
											</Node>
										</Node>
									</Node>
								</Node>
							</TreeModel>
						</Segment>
						<Segment id="12">
							<True/>
							<TreeModel functionName="regression" missingValueStrategy="defaultChild" splitCharacteristic="binarySplit" x-mathContext="float">
								<MiningSchema>
									<MiningField name="Pclass"/>
									<MiningField name="Age"/>
									<MiningField name="Fare"/>
									<MiningField name="Female"/>
								</MiningSchema>
								<Node id="1" defaultChild="2">
									<True/>
									<Node id="2" defaultChild="4">
										<SimplePredicate field="Female" operator="lessThan" value="0.5"/>
										<Node id="4" defaultChild="8">
											<SimplePredicate field="Pclass" operator="lessThan" value="1.5"/>
											<Node id="8" score="0.008105554">
												<SimplePredicate field="Age" operator="lessThan" value="53.0"/>
											</Node>
											<Node id="9" score="-0.07172654">
												<SimplePredicate field="Age" operator="greaterOrEqual" value="53.0"/>
											</Node>
										</Node>
										<Node id="5" defaultChild="10">
											<SimplePredicate field="Pclass" operator="greaterOrEqual" value="1.5"/>
											<Node id="10" score="0.0066806334">
												<SimplePredicate field="Age" operator="lessThan" value="13.0"/>
											</Node>
											<Node id="11" score="-0.07174018">
												<SimplePredicate field="Age" operator="greaterOrEqual" value="13.0"/>
											</Node>
										</Node>
									</Node>
									<Node id="3" defaultChild="6">
										<SimplePredicate field="Female" operator="greaterOrEqual" value="0.5"/>
										<Node id="6" defaultChild="12">
											<SimplePredicate field="Pclass" operator="lessThan" value="2.5"/>
											<Node id="12" score="0.059552796">
												<SimplePredicate field="Fare" operator="lessThan" value="28.85625"/>
											</Node>
											<Node id="13" score="0.1069346">
												<SimplePredicate field="Fare" operator="greaterOrEqual" value="28.85625"/>
											</Node>
										</Node>
										<Node id="7" defaultChild="14">
											<SimplePredicate field="Pclass" operator="greaterOrEqual" value="2.5"/>
											<Node id="14" score="0.019428967">
												<SimplePredicate field="Fare" operator="lessThan" value="24.80835"/>
											</Node>
											<Node id="15" score="-0.08339488">
												<SimplePredicate field="Fare" operator="greaterOrEqual" value="24.80835"/>
											</Node>
										</Node>
									</Node>
								</Node>
							</TreeModel>
						</Segment>
						<Segment id="13">
							<True/>
							<TreeModel functionName="regression" missingValueStrategy="defaultChild" splitCharacteristic="binarySplit" x-mathContext="float">
								<MiningSchema>
									<MiningField name="Pclass"/>
									<MiningField name="Age"/>
									<MiningField name="SibSp"/>
									<MiningField name="Fare"/>
									<MiningField name="Female"/>
								</MiningSchema>
								<Node id="1" defaultChild="2">
									<True/>
									<Node id="2" defaultChild="4">
										<SimplePredicate field="Female" operator="lessThan" value="0.5"/>
										<Node id="4" defaultChild="8">
											<SimplePredicate field="Fare" operator="lessThan" value="7.9104004"/>
											<Node id="8" score="-0.052580353">
												<SimplePredicate field="Age" operator="lessThan" value="27.5"/>
											</Node>
											<Node id="9" score="-0.10059657">
												<SimplePredicate field="Age" operator="greaterOrEqual" value="27.5"/>
											</Node>
										</Node>
										<Node id="5" defaultChild="10">
											<SimplePredicate field="Fare" operator="greaterOrEqual" value="7.9104004"/>
											<Node id="10" score="-0.023217127">
												<SimplePredicate field="SibSp" operator="lessThan" value="2.5"/>
											</Node>
											<Node id="11" score="-0.11055769">
												<SimplePredicate field="SibSp" operator="greaterOrEqual" value="2.5"/>
											</Node>
										</Node>
									</Node>
									<Node id="3" defaultChild="6">
										<SimplePredicate field="Female" operator="greaterOrEqual" value="0.5"/>
										<Node id="6" defaultChild="12">
											<SimplePredicate field="Pclass" operator="lessThan" value="2.5"/>
											<Node id="12" score="0.05593704">
												<SimplePredicate field="Fare" operator="lessThan" value="28.85625"/>
											</Node>
											<Node id="13" score="0.1035746">
												<SimplePredicate field="Fare" operator="greaterOrEqual" value="28.85625"/>
											</Node>
										</Node>
										<Node id="7" defaultChild="14">
											<SimplePredicate field="Pclass" operator="greaterOrEqual" value="2.5"/>
											<Node id="14" score="0.09441044">
												<SimplePredicate field="Age" operator="lessThan" value="6.5"/>
											</Node>
											<Node id="15" score="-0.012216198">
												<SimplePredicate field="Age" operator="greaterOrEqual" value="6.5"/>
											</Node>
										</Node>
									</Node>
								</Node>
							</TreeModel>
						</Segment>
						<Segment id="14">
							<True/>
							<TreeModel functionName="regression" missingValueStrategy="defaultChild" splitCharacteristic="binarySplit" x-mathContext="float">
								<MiningSchema>
									<MiningField name="Pclass"/>
									<MiningField name="Age"/>
									<MiningField name="SibSp"/>
									<MiningField name="Fare"/>
									<MiningField name="Female"/>
								</MiningSchema>
								<Node id="1" defaultChild="2">
									<True/>
									<Node id="2" defaultChild="4">
										<SimplePredicate field="Female" operator="lessThan" value="0.5"/>
										<Node id="4" defaultChild="8">
											<SimplePredicate field="Fare" operator="lessThan" value="7.9104004"/>
											<Node id="8" score="-0.04914884">
												<SimplePredicate field="Age" operator="lessThan" value="27.5"/>
											</Node>
											<Node id="9" score="-0.0966725">
												<SimplePredicate field="Age" operator="greaterOrEqual" value="27.5"/>
											</Node>
										</Node>
										<Node id="5" defaultChild="10">
											<SimplePredicate field="Fare" operator="greaterOrEqual" value="7.9104004"/>
											<Node id="10" score="-0.021116575">
												<SimplePredicate field="SibSp" operator="lessThan" value="2.5"/>
											</Node>
											<Node id="11" score="-0.104506694">
												<SimplePredicate field="SibSp" operator="greaterOrEqual" value="2.5"/>
											</Node>
										</Node>
									</Node>
									<Node id="3" defaultChild="6">
										<SimplePredicate field="Female" operator="greaterOrEqual" value="0.5"/>
										<Node id="6" defaultChild="12">
											<SimplePredicate field="Pclass" operator="lessThan" value="2.5"/>
											<Node id="12" score="0.09073191">
												<SimplePredicate field="Age" operator="lessThan" value="43.5"/>
											</Node>
											<Node id="13" score="0.03180677">
												<SimplePredicate field="Age" operator="greaterOrEqual" value="43.5"/>
											</Node>
										</Node>
										<Node id="7" defaultChild="14">
											<SimplePredicate field="Pclass" operator="greaterOrEqual" value="2.5"/>
											<Node id="14" score="0.05738001">
												<SimplePredicate field="Fare" operator="lessThan" value="7.9021"/>
											</Node>
											<Node id="15" score="-0.020946972">
												<SimplePredicate field="Fare" operator="greaterOrEqual" value="7.9021"/>
											</Node>
										</Node>
									</Node>
								</Node>
							</TreeModel>
						</Segment>
						<Segment id="15">
							<True/>
							<TreeModel functionName="regression" missingValueStrategy="defaultChild" splitCharacteristic="binarySplit" x-mathContext="float">
								<MiningSchema>
									<MiningField name="Pclass"/>
									<MiningField name="Age"/>
									<MiningField name="Fare"/>
									<MiningField name="Female"/>
								</MiningSchema>
								<Node id="1" defaultChild="2">
									<True/>
									<Node id="2" defaultChild="4">
										<SimplePredicate field="Female" operator="lessThan" value="0.5"/>
										<Node id="4" defaultChild="8">
											<SimplePredicate field="Pclass" operator="lessThan" value="1.5"/>
											<Node id="8" score="0.012710908">
												<SimplePredicate field="Age" operator="lessThan" value="53.0"/>
											</Node>
											<Node id="9" score="-0.06436076">
												<SimplePredicate field="Age" operator="greaterOrEqual" value="53.0"/>
											</Node>
										</Node>
										<Node id="5" defaultChild="10">
											<SimplePredicate field="Pclass" operator="greaterOrEqual" value="1.5"/>
											<Node id="10" score="0.017662955">
												<SimplePredicate field="Age" operator="lessThan" value="13.0"/>
											</Node>
											<Node id="11" score="-0.06156254">
												<SimplePredicate field="Age" operator="greaterOrEqual" value="13.0"/>
											</Node>
										</Node>
									</Node>
									<Node id="3" defaultChild="6">
										<SimplePredicate field="Female" operator="greaterOrEqual" value="0.5"/>
										<Node id="6" defaultChild="12">
											<SimplePredicate field="Pclass" operator="lessThan" value="2.5"/>
											<Node id="12" score="0.04756421">
												<SimplePredicate field="Fare" operator="lessThan" value="28.85625"/>
											</Node>
											<Node id="13" score="0.09812773">
												<SimplePredicate field="Fare" operator="greaterOrEqual" value="28.85625"/>
											</Node>
										</Node>
										<Node id="7" defaultChild="14">
											<SimplePredicate field="Pclass" operator="greaterOrEqual" value="2.5"/>
											<Node id="14" score="0.08902683">
												<SimplePredicate field="Age" operator="lessThan" value="6.5"/>
											</Node>
											<Node id="15" score="-0.01153675">
												<SimplePredicate field="Age" operator="greaterOrEqual" value="6.5"/>
											</Node>
										</Node>
									</Node>
								</Node>
							</TreeModel>
						</Segment>
						<Segment id="16">
							<True/>
							<TreeModel functionName="regression" missingValueStrategy="defaultChild" splitCharacteristic="binarySplit" x-mathContext="float">
								<MiningSchema>
									<MiningField name="Pclass"/>
									<MiningField name="Age"/>
									<MiningField name="SibSp"/>
									<MiningField name="Fare"/>
									<MiningField name="Female"/>
								</MiningSchema>
								<Node id="1" defaultChild="2">
									<True/>
									<Node id="2" defaultChild="4">
										<SimplePredicate field="Female" operator="lessThan" value="0.5"/>
										<Node id="4" defaultChild="8">
											<SimplePredicate field="Fare" operator="lessThan" value="7.9104004"/>
											<Node id="8" score="-0.041785035">
												<SimplePredicate field="Age" operator="lessThan" value="27.5"/>
											</Node>
											<Node id="9" score="-0.09094684">
												<SimplePredicate field="Age" operator="greaterOrEqual" value="27.5"/>
											</Node>
										</Node>
										<Node id="5" defaultChild="10">
											<SimplePredicate field="Fare" operator="greaterOrEqual" value="7.9104004"/>
											<Node id="10" score="-0.016124316">
												<SimplePredicate field="SibSp" operator="lessThan" value="2.5"/>
											</Node>
											<Node id="11" score="-0.099419">
												<SimplePredicate field="SibSp" operator="greaterOrEqual" value="2.5"/>
											</Node>
										</Node>
									</Node>
									<Node id="3" defaultChild="6">
										<SimplePredicate field="Female" operator="greaterOrEqual" value="0.5"/>
										<Node id="6" defaultChild="12">
											<SimplePredicate field="Pclass" operator="lessThan" value="2.5"/>
											<Node id="12" score="0.04454359">
												<SimplePredicate field="Fare" operator="lessThan" value="28.85625"/>
											</Node>
											<Node id="13" score="0.09529844">
												<SimplePredicate field="Fare" operator="greaterOrEqual" value="28.85625"/>
											</Node>
										</Node>
										<Node id="7" defaultChild="14">
											<SimplePredicate field="Pclass" operator="greaterOrEqual" value="2.5"/>
											<Node id="14" score="0.017276345">
												<SimplePredicate field="Fare" operator="lessThan" value="24.80835"/>
											</Node>
											<Node id="15" score="-0.07916446">
												<SimplePredicate field="Fare" operator="greaterOrEqual" value="24.80835"/>
											</Node>
										</Node>
									</Node>
								</Node>
							</TreeModel>
						</Segment>
						<Segment id="17">
							<True/>
							<TreeModel functionName="regression" missingValueStrategy="defaultChild" splitCharacteristic="binarySplit" x-mathContext="float">
								<MiningSchema>
									<MiningField name="Pclass"/>
									<MiningField name="Age"/>
									<MiningField name="SibSp"/>
									<MiningField name="Fare"/>
									<MiningField name="Female"/>
								</MiningSchema>
								<Node id="1" defaultChild="2">
									<True/>
									<Node id="2" defaultChild="4">
										<SimplePredicate field="Female" operator="lessThan" value="0.5"/>
										<Node id="4" defaultChild="8">
											<SimplePredicate field="Age" operator="lessThan" value="9.5"/>
											<Node id="8" score="0.13636075">
												<SimplePredicate field="SibSp" operator="lessThan" value="2.5"/>
											</Node>
											<Node id="9" score="-0.0828251">
												<SimplePredicate field="SibSp" operator="greaterOrEqual" value="2.5"/>
											</Node>
										</Node>
										<Node id="5" defaultChild="10">
											<SimplePredicate field="Age" operator="greaterOrEqual" value="9.5"/>
											<Node id="10" score="-0.05879725">
												<SimplePredicate field="Fare" operator="lessThan" value="26.26875"/>
											</Node>
											<Node id="11" score="-0.003987144">
												<SimplePredicate field="Fare" operator="greaterOrEqual" value="26.26875"/>
											</Node>
										</Node>
									</Node>
									<Node id="3" defaultChild="6">
										<SimplePredicate field="Female" operator="greaterOrEqual" value="0.5"/>
										<Node id="6" defaultChild="12">
											<SimplePredicate field="Pclass" operator="lessThan" value="2.5"/>
											<Node id="12" score="0.08162775">
												<SimplePredicate field="Age" operator="lessThan" value="43.5"/>
											</Node>
											<Node id="13" score="0.020485597">
												<SimplePredicate field="Age" operator="greaterOrEqual" value="43.5"/>
											</Node>
										</Node>
										<Node id="7" defaultChild="14">
											<SimplePredicate field="Pclass" operator="greaterOrEqual" value="2.5"/>
											<Node id="14" score="0.052500915">
												<SimplePredicate field="Fare" operator="lessThan" value="7.9021"/>
											</Node>
											<Node id="15" score="-0.019672332">
												<SimplePredicate field="Fare" operator="greaterOrEqual" value="7.9021"/>
											</Node>
										</Node>
									</Node>
								</Node>
							</TreeModel>
						</Segment>
						<Segment id="18">
							<True/>
							<TreeModel functionName="regression" missingValueStrategy="defaultChild" splitCharacteristic="binarySplit" x-mathContext="float">
								<MiningSchema>
									<MiningField name="Pclass"/>
									<MiningField name="Age"/>
									<MiningField name="Fare"/>
									<MiningField name="Female"/>
								</MiningSchema>
								<Node id="1" defaultChild="2">
									<True/>
									<Node id="2" defaultChild="4">
										<SimplePredicate field="Female" operator="lessThan" value="0.5"/>
										<Node id="4" defaultChild="8">
											<SimplePredicate field="Fare" operator="lessThan" value="7.9104004"/>
											<Node id="8" score="-0.034884978">
												<SimplePredicate field="Age" operator="lessThan" value="27.5"/>
											</Node>
											<Node id="9" score="-0.085308164">
												<SimplePredicate field="Age" operator="greaterOrEqual" value="27.5"/>
											</Node>
										</Node>
										<Node id="5" defaultChild="10">
											<SimplePredicate field="Fare" operator="greaterOrEqual" value="7.9104004"/>
											<Node id="10" score="0.08473062">
												<SimplePredicate field="Fare" operator="lessThan" value="7.9875"/>
											</Node>
											<Node id="11" score="-0.023829848">
												<SimplePredicate field="Fare" operator="greaterOrEqual" value="7.9875"/>
											</Node>
										</Node>
									</Node>
									<Node id="3" defaultChild="6">
										<SimplePredicate field="Female" operator="greaterOrEqual" value="0.5"/>
										<Node id="6" defaultChild="12">
											<SimplePredicate field="Pclass" operator="lessThan" value="2.5"/>
											<Node id="12" score="0.0371263">
												<SimplePredicate field="Fare" operator="lessThan" value="28.85625"/>
											</Node>
											<Node id="13" score="0.09065639">
												<SimplePredicate field="Fare" operator="greaterOrEqual" value="28.85625"/>
											</Node>
										</Node>
										<Node id="7" defaultChild="14">
											<SimplePredicate field="Pclass" operator="greaterOrEqual" value="2.5"/>
											<Node id="14" score="0.08471082">
												<SimplePredicate field="Age" operator="lessThan" value="6.5"/>
											</Node>
											<Node id="15" score="-0.011521184">
												<SimplePredicate field="Age" operator="greaterOrEqual" value="6.5"/>
											</Node>
										</Node>
									</Node>
								</Node>
							</TreeModel>
						</Segment>
						<Segment id="19">
							<True/>
							<TreeModel functionName="regression" missingValueStrategy="defaultChild" splitCharacteristic="binarySplit" x-mathContext="float">
								<MiningSchema>
									<MiningField name="Pclass"/>
									<MiningField name="Age"/>
									<MiningField name="Fare"/>
									<MiningField name="Female"/>
								</MiningSchema>
								<Node id="1" defaultChild="2">
									<True/>
									<Node id="2" defaultChild="4">
										<SimplePredicate field="Female" operator="lessThan" value="0.5"/>
										<Node id="4" defaultChild="8">
											<SimplePredicate field="Fare" operator="lessThan" value="52.2771"/>
											<Node id="8" score="0.022218257">
												<SimplePredicate field="Age" operator="lessThan" value="13.0"/>
											</Node>
											<Node id="9" score="-0.044072535">
												<SimplePredicate field="Age" operator="greaterOrEqual" value="13.0"/>
											</Node>
										</Node>
										<Node id="5" defaultChild="10">
											<SimplePredicate field="Fare" operator="greaterOrEqual" value="52.2771"/>
											<Node id="10" score="0.120973125">
												<SimplePredicate field="Fare" operator="lessThan" value="59.0875"/>
											</Node>
											<Node id="11" score="-0.029756201">
												<SimplePredicate field="Fare" operator="greaterOrEqual" value="59.0875"/>
											</Node>
										</Node>
									</Node>
									<Node id="3" defaultChild="6">
										<SimplePredicate field="Female" operator="greaterOrEqual" value="0.5"/>
										<Node id="6" defaultChild="12">
											<SimplePredicate field="Pclass" operator="lessThan" value="2.5"/>
											<Node id="12" score="0.03463736">
												<SimplePredicate field="Fare" operator="lessThan" value="28.85625"/>
											</Node>
											<Node id="13" score="0.08810156">
												<SimplePredicate field="Fare" operator="greaterOrEqual" value="28.85625"/>
											</Node>
										</Node>
										<Node id="7" defaultChild="14">
											<SimplePredicate field="Pclass" operator="greaterOrEqual" value="2.5"/>
											<Node id="14" score="0.015433239">
												<SimplePredicate field="Fare" operator="lessThan" value="24.80835"/>
											</Node>
											<Node id="15" score="-0.0750419">
												<SimplePredicate field="Fare" operator="greaterOrEqual" value="24.80835"/>
											</Node>
										</Node>
									</Node>
								</Node>
							</TreeModel>
						</Segment>
						<Segment id="20">
							<True/>
							<TreeModel functionName="regression" missingValueStrategy="defaultChild" splitCharacteristic="binarySplit" x-mathContext="float">
								<MiningSchema>
									<MiningField name="Pclass"/>
									<MiningField name="Age"/>
									<MiningField name="SibSp"/>
									<MiningField name="Fare"/>
									<MiningField name="Female"/>
								</MiningSchema>
								<Node id="1" defaultChild="2">
									<True/>
									<Node id="2" defaultChild="4">
										<SimplePredicate field="Female" operator="lessThan" value="0.5"/>
										<Node id="4" defaultChild="8">
											<SimplePredicate field="Fare" operator="lessThan" value="7.7625"/>
											<Node id="8" score="-0.017783139">
												<SimplePredicate field="Age" operator="lessThan" value="27.5"/>
											</Node>
											<Node id="9" score="-0.10169071">
												<SimplePredicate field="Age" operator="greaterOrEqual" value="27.5"/>
											</Node>
										</Node>
										<Node id="5" defaultChild="10">
											<SimplePredicate field="Fare" operator="greaterOrEqual" value="7.7625"/>
											<Node id="10" score="-0.011885029">
												<SimplePredicate field="SibSp" operator="lessThan" value="2.5"/>
											</Node>
											<Node id="11" score="-0.090769194">
												<SimplePredicate field="SibSp" operator="greaterOrEqual" value="2.5"/>
											</Node>
										</Node>
									</Node>
									<Node id="3" defaultChild="6">
										<SimplePredicate field="Female" operator="greaterOrEqual" value="0.5"/>
										<Node id="6" defaultChild="12">
											<SimplePredicate field="Pclass" operator="lessThan" value="2.5"/>
											<Node id="12" score="0.032282043">
												<SimplePredicate field="Fare" operator="lessThan" value="28.85625"/>
											</Node>
											<Node id="13" score="0.085610256">
												<SimplePredicate field="Fare" operator="greaterOrEqual" value="28.85625"/>
											</Node>
										</Node>
										<Node id="7" defaultChild="14">
											<SimplePredicate field="Pclass" operator="greaterOrEqual" value="2.5"/>
											<Node id="14" score="0.07952657">
												<SimplePredicate field="Age" operator="lessThan" value="6.5"/>
											</Node>
											<Node id="15" score="-0.01101364">
												<SimplePredicate field="Age" operator="greaterOrEqual" value="6.5"/>
											</Node>
										</Node>
									</Node>
								</Node>
							</TreeModel>
						</Segment>
						<Segment id="21">
							<True/>
							<TreeModel functionName="regression" missingValueStrategy="defaultChild" splitCharacteristic="binarySplit" x-mathContext="float">
								<MiningSchema>
									<MiningField name="Pclass"/>
									<MiningField name="Age"/>
									<MiningField name="SibSp"/>
									<MiningField name="Fare"/>
									<MiningField name="Female"/>
								</MiningSchema>
								<Node id="1" defaultChild="2">
									<True/>
									<Node id="2" defaultChild="4">
										<SimplePredicate field="Female" operator="lessThan" value="0.5"/>
										<Node id="4" defaultChild="8">
											<SimplePredicate field="Age" operator="lessThan" value="9.5"/>
											<Node id="8" score="0.12951045">
												<SimplePredicate field="SibSp" operator="lessThan" value="2.5"/>
											</Node>
											<Node id="9" score="-0.07375985">
												<SimplePredicate field="SibSp" operator="greaterOrEqual" value="2.5"/>
											</Node>
										</Node>
										<Node id="5" defaultChild="10">
											<SimplePredicate field="Age" operator="greaterOrEqual" value="9.5"/>
											<Node id="10" score="-0.04823819">
												<SimplePredicate field="Fare" operator="lessThan" value="26.26875"/>
											</Node>
											<Node id="11" score="0.0017686648">
												<SimplePredicate field="Fare" operator="greaterOrEqual" value="26.26875"/>
											</Node>
										</Node>
									</Node>
									<Node id="3" defaultChild="6">
										<SimplePredicate field="Female" operator="greaterOrEqual" value="0.5"/>
										<Node id="6" defaultChild="12">
											<SimplePredicate field="Pclass" operator="lessThan" value="2.5"/>
											<Node id="12" score="0.07107975">
												<SimplePredicate field="Age" operator="lessThan" value="43.5"/>
											</Node>
											<Node id="13" score="0.0067188847">
												<SimplePredicate field="Age" operator="greaterOrEqual" value="43.5"/>
											</Node>
										</Node>
										<Node id="7" defaultChild="14">
											<SimplePredicate field="Pclass" operator="greaterOrEqual" value="2.5"/>
											<Node id="14" score="0.045132715">
												<SimplePredicate field="Fare" operator="lessThan" value="8.0396"/>
											</Node>
											<Node id="15" score="-0.021137016">
												<SimplePredicate field="Fare" operator="greaterOrEqual" value="8.0396"/>
											</Node>
										</Node>
									</Node>
								</Node>
							</TreeModel>
						</Segment>
						<Segment id="22">
							<True/>
							<TreeModel functionName="regression" missingValueStrategy="defaultChild" splitCharacteristic="binarySplit" x-mathContext="float">
								<MiningSchema>
									<MiningField name="Age"/>
									<MiningField name="SibSp"/>
									<MiningField name="Fare"/>
									<MiningField name="Female"/>
								</MiningSchema>
								<Node id="1" defaultChild="2">
									<True/>
									<Node id="2" defaultChild="4">
										<SimplePredicate field="Age" operator="lessThan" value="6.5"/>
										<Node id="4" score="0.12807283">
											<SimplePredicate field="SibSp" operator="lessThan" value="2.5"/>
										</Node>
										<Node id="5" defaultChild="8">
											<SimplePredicate field="SibSp" operator="greaterOrEqual" value="2.5"/>
											<Node id="8" score="-0.096273385">
												<SimplePredicate field="Fare" operator="lessThan" value="31.33125"/>
											</Node>
											<Node id="9" score="0.027141923">
												<SimplePredicate field="Fare" operator="greaterOrEqual" value="31.33125"/>
											</Node>
										</Node>
									</Node>
									<Node id="3" defaultChild="6">
										<SimplePredicate field="Age" operator="greaterOrEqual" value="6.5"/>
										<Node id="6" defaultChild="10">
											<SimplePredicate field="Fare" operator="lessThan" value="52.2771"/>
											<Node id="10" score="-0.034772214">
												<SimplePredicate field="Female" operator="lessThan" value="0.5"/>
											</Node>
											<Node id="11" score="0.0020457825">
												<SimplePredicate field="Female" operator="greaterOrEqual" value="0.5"/>
											</Node>
										</Node>
										<Node id="7" defaultChild="12">
											<SimplePredicate field="Fare" operator="greaterOrEqual" value="52.2771"/>
											<Node id="12" score="0.1102046">
												<SimplePredicate field="Fare" operator="lessThan" value="59.5771"/>
											</Node>
											<Node id="13" score="-8.5987867E-4">
												<SimplePredicate field="Fare" operator="greaterOrEqual" value="59.5771"/>
											</Node>
										</Node>
									</Node>
								</Node>
							</TreeModel>
						</Segment>
						<Segment id="23">
							<True/>
							<TreeModel functionName="regression" missingValueStrategy="defaultChild" splitCharacteristic="binarySplit" x-mathContext="float">
								<MiningSchema>
									<MiningField name="Pclass"/>
									<MiningField name="Age"/>
									<MiningField name="SibSp"/>
									<MiningField name="Fare"/>
									<MiningField name="Female"/>
								</MiningSchema>
								<Node id="1" defaultChild="2">
									<True/>
									<Node id="2" defaultChild="4">
										<SimplePredicate field="Age" operator="lessThan" value="6.5"/>
										<Node id="4" score="0.12204188">
											<SimplePredicate field="SibSp" operator="lessThan" value="2.5"/>
										</Node>
										<Node id="5" defaultChild="8">
											<SimplePredicate field="SibSp" operator="greaterOrEqual" value="2.5"/>
											<Node id="8" score="-0.0923758">
												<SimplePredicate field="Fare" operator="lessThan" value="31.33125"/>
											</Node>
											<Node id="9" score="0.025611294">
												<SimplePredicate field="Fare" operator="greaterOrEqual" value="31.33125"/>
											</Node>
										</Node>
									</Node>
									<Node id="3" defaultChild="6">
										<SimplePredicate field="Age" operator="greaterOrEqual" value="6.5"/>
										<Node id="6" defaultChild="10">
											<SimplePredicate field="Pclass" operator="lessThan" value="1.5"/>
											<Node id="10" score="0.0027500312">
												<SimplePredicate field="Female" operator="lessThan" value="0.5"/>
											</Node>
											<Node id="11" score="0.06668039">
												<SimplePredicate field="Female" operator="greaterOrEqual" value="0.5"/>
											</Node>
										</Node>
										<Node id="7" defaultChild="12">
											<SimplePredicate field="Pclass" operator="greaterOrEqual" value="1.5"/>
											<Node id="12" score="-0.037859812">
												<SimplePredicate field="Female" operator="lessThan" value="0.5"/>
											</Node>
											<Node id="13" score="2.4508024E-4">
												<SimplePredicate field="Female" operator="greaterOrEqual" value="0.5"/>
											</Node>
										</Node>
									</Node>
								</Node>
							</TreeModel>
						</Segment>
						<Segment id="24">
							<True/>
							<TreeModel functionName="regression" missingValueStrategy="defaultChild" splitCharacteristic="binarySplit" x-mathContext="float">
								<MiningSchema>
									<MiningField name="Age"/>
									<MiningField name="SibSp"/>
									<MiningField name="Fare"/>
								</MiningSchema>
								<Node id="1" defaultChild="2">
									<True/>
									<Node id="2" defaultChild="4">
										<SimplePredicate field="Age" operator="lessThan" value="6.5"/>
										<Node id="4" score="0.11674012">
											<SimplePredicate field="SibSp" operator="lessThan" value="2.5"/>
										</Node>
										<Node id="5" defaultChild="8">
											<SimplePredicate field="SibSp" operator="greaterOrEqual" value="2.5"/>
											<Node id="8" score="-0.088772394">
												<SimplePredicate field="Fare" operator="lessThan" value="31.33125"/>
											</Node>
											<Node id="9" score="0.024170965">
												<SimplePredicate field="Fare" operator="greaterOrEqual" value="31.33125"/>
											</Node>
										</Node>
									</Node>
									<Node id="3" defaultChild="6">
										<SimplePredicate field="Age" operator="greaterOrEqual" value="6.5"/>
										<Node id="6" defaultChild="10">
											<SimplePredicate field="Fare" operator="lessThan" value="52.2771"/>
											<Node id="10" score="-0.01427872">
												<SimplePredicate field="Fare" operator="lessThan" value="36.877098"/>
											</Node>
											<Node id="11" score="-0.079483114">
												<SimplePredicate field="Fare" operator="greaterOrEqual" value="36.877098"/>
											</Node>
										</Node>
										<Node id="7" defaultChild="12">
											<SimplePredicate field="Fare" operator="greaterOrEqual" value="52.2771"/>
											<Node id="12" score="0.10247224">
												<SimplePredicate field="Fare" operator="lessThan" value="59.5771"/>
											</Node>
											<Node id="13" score="-0.0026488889">
												<SimplePredicate field="Fare" operator="greaterOrEqual" value="59.5771"/>
											</Node>
										</Node>
									</Node>
								</Node>
							</TreeModel>
						</Segment>
						<Segment id="25">
							<True/>
							<TreeModel functionName="regression" missingValueStrategy="defaultChild" splitCharacteristic="binarySplit" x-mathContext="float">
								<MiningSchema>
									<MiningField name="Pclass"/>
									<MiningField name="Age"/>
									<MiningField name="SibSp"/>
									<MiningField name="Fare"/>
									<MiningField name="Female"/>
								</MiningSchema>
								<Node id="1" defaultChild="2">
									<True/>
									<Node id="2" defaultChild="4">
										<SimplePredicate field="Female" operator="lessThan" value="0.5"/>
										<Node id="4" defaultChild="8">
											<SimplePredicate field="Fare" operator="lessThan" value="7.7625"/>
											<Node id="8" score="-0.006646623">
												<SimplePredicate field="Age" operator="lessThan" value="27.5"/>
											</Node>
											<Node id="9" score="-0.09649948">
												<SimplePredicate field="Age" operator="greaterOrEqual" value="27.5"/>
											</Node>
										</Node>
										<Node id="5" defaultChild="10">
											<SimplePredicate field="Fare" operator="greaterOrEqual" value="7.7625"/>
											<Node id="10" score="-0.0055669355">
												<SimplePredicate field="SibSp" operator="lessThan" value="2.5"/>
											</Node>
											<Node id="11" score="-0.07975926">
												<SimplePredicate field="SibSp" operator="greaterOrEqual" value="2.5"/>
											</Node>
										</Node>
									</Node>
									<Node id="3" defaultChild="6">
										<SimplePredicate field="Female" operator="greaterOrEqual" value="0.5"/>
										<Node id="6" defaultChild="12">
											<SimplePredicate field="Pclass" operator="lessThan" value="2.5"/>
											<Node id="12" score="0.0663945">
												<SimplePredicate field="Age" operator="lessThan" value="43.5"/>
											</Node>
											<Node id="13" score="0.0035295833">
												<SimplePredicate field="Age" operator="greaterOrEqual" value="43.5"/>
											</Node>
										</Node>
										<Node id="7" defaultChild="14">
											<SimplePredicate field="Pclass" operator="greaterOrEqual" value="2.5"/>
											<Node id="14" score="0.08265548">
												<SimplePredicate field="Fare" operator="lessThan" value="7.74375"/>
											</Node>
											<Node id="15" score="-0.010803142">
												<SimplePredicate field="Fare" operator="greaterOrEqual" value="7.74375"/>
											</Node>
										</Node>
									</Node>
								</Node>
							</TreeModel>
						</Segment>
						<Segment id="26">
							<True/>
							<TreeModel functionName="regression" missingValueStrategy="defaultChild" splitCharacteristic="binarySplit" x-mathContext="float">
								<MiningSchema>
									<MiningField name="Pclass"/>
									<MiningField name="Age"/>
									<MiningField name="SibSp"/>
									<MiningField name="Fare"/>
									<MiningField name="Female"/>
								</MiningSchema>
								<Node id="1" defaultChild="2">
									<True/>
									<Node id="2" defaultChild="4">
										<SimplePredicate field="Age" operator="lessThan" value="6.5"/>
										<Node id="4" score="0.11230898">
											<SimplePredicate field="SibSp" operator="lessThan" value="2.5"/>
										</Node>
										<Node id="5" defaultChild="8">
											<SimplePredicate field="SibSp" operator="greaterOrEqual" value="2.5"/>
											<Node id="8" score="-0.08383823">
												<SimplePredicate field="Fare" operator="lessThan" value="31.33125"/>
											</Node>
											<Node id="9" score="0.02654922">
												<SimplePredicate field="Fare" operator="greaterOrEqual" value="31.33125"/>
											</Node>
										</Node>
									</Node>
									<Node id="3" defaultChild="6">
										<SimplePredicate field="Age" operator="greaterOrEqual" value="6.5"/>
										<Node id="6" defaultChild="10">
											<SimplePredicate field="Pclass" operator="lessThan" value="1.5"/>
											<Node id="10" score="-0.06578965">
												<SimplePredicate field="Fare" operator="lessThan" value="26.14375"/>
											</Node>
											<Node id="11" score="0.024896467">
												<SimplePredicate field="Fare" operator="greaterOrEqual" value="26.14375"/>
											</Node>
										</Node>
										<Node id="7" defaultChild="12">
											<SimplePredicate field="Pclass" operator="greaterOrEqual" value="1.5"/>
											<Node id="12" score="-0.032826994">
												<SimplePredicate field="Female" operator="lessThan" value="0.5"/>
											</Node>
											<Node id="13" score="6.1054545E-4">
												<SimplePredicate field="Female" operator="greaterOrEqual" value="0.5"/>
											</Node>
										</Node>
									</Node>
								</Node>
							</TreeModel>
						</Segment>
						<Segment id="27">
							<True/>
							<TreeModel functionName="regression" missingValueStrategy="defaultChild" splitCharacteristic="binarySplit" x-mathContext="float">
								<MiningSchema>
									<MiningField name="Pclass"/>
									<MiningField name="Age"/>
									<MiningField name="SibSp"/>
									<MiningField name="Fare"/>
									<MiningField name="Female"/>
								</MiningSchema>
								<Node id="1" defaultChild="2">
									<True/>
									<Node id="2" defaultChild="4">
										<SimplePredicate field="Age" operator="lessThan" value="6.5"/>
										<Node id="4" score="0.10803083">
											<SimplePredicate field="SibSp" operator="lessThan" value="2.5"/>
										</Node>
										<Node id="5" defaultChild="8">
											<SimplePredicate field="SibSp" operator="greaterOrEqual" value="2.5"/>
											<Node id="8" score="-0.08082657">
												<SimplePredicate field="Fare" operator="lessThan" value="31.33125"/>
											</Node>
											<Node id="9" score="0.025053073">
												<SimplePredicate field="Fare" operator="greaterOrEqual" value="31.33125"/>
											</Node>
										</Node>
									</Node>
									<Node id="3" defaultChild="6">
										<SimplePredicate field="Age" operator="greaterOrEqual" value="6.5"/>
										<Node id="6" defaultChild="10">
											<SimplePredicate field="Pclass" operator="lessThan" value="1.5"/>
											<Node id="10" score="0.03535007">
												<SimplePredicate field="Age" operator="lessThan" value="43.5"/>
											</Node>
											<Node id="11" score="-0.01636375">
												<SimplePredicate field="Age" operator="greaterOrEqual" value="43.5"/>
											</Node>
										</Node>
										<Node id="7" defaultChild="12">
											<SimplePredicate field="Pclass" operator="greaterOrEqual" value="1.5"/>
											<Node id="12" score="-0.03027415">
												<SimplePredicate field="Female" operator="lessThan" value="0.5"/>
											</Node>
											<Node id="13" score="5.515141E-4">
												<SimplePredicate field="Female" operator="greaterOrEqual" value="0.5"/>
											</Node>
										</Node>
									</Node>
								</Node>
							</TreeModel>
						</Segment>
						<Segment id="28">
							<True/>
							<TreeModel functionName="regression" missingValueStrategy="defaultChild" splitCharacteristic="binarySplit" x-mathContext="float">
								<MiningSchema>
									<MiningField name="Age"/>
									<MiningField name="SibSp"/>
									<MiningField name="Fare"/>
									<MiningField name="Female"/>
								</MiningSchema>
								<Node id="1" defaultChild="2">
									<True/>
									<Node id="2" defaultChild="4">
										<SimplePredicate field="SibSp" operator="lessThan" value="2.5"/>
										<Node id="4" score="0.10098914">
											<SimplePredicate field="Age" operator="lessThan" value="13.5"/>
										</Node>
										<Node id="5" defaultChild="8">
											<SimplePredicate field="Age" operator="greaterOrEqual" value="13.5"/>
											<Node id="8" score="-0.01864268">
												<SimplePredicate field="Female" operator="lessThan" value="0.5"/>
											</Node>
											<Node id="9" score="0.016531076">
												<SimplePredicate field="Female" operator="greaterOrEqual" value="0.5"/>
											</Node>
										</Node>
									</Node>
									<Node id="3" defaultChild="6">
										<SimplePredicate field="SibSp" operator="greaterOrEqual" value="2.5"/>
										<Node id="6" defaultChild="10">
											<SimplePredicate field="Age" operator="lessThan" value="16.5"/>
											<Node id="10" score="-0.1014192">
												<SimplePredicate field="Fare" operator="lessThan" value="31.33125"/>
											</Node>
											<Node id="11" score="-0.021421833">
												<SimplePredicate field="Fare" operator="greaterOrEqual" value="31.33125"/>
											</Node>
										</Node>
										<Node id="7" score="-0.022369703">
											<SimplePredicate field="Age" operator="greaterOrEqual" value="16.5"/>
										</Node>
									</Node>
								</Node>
							</TreeModel>
						</Segment>
						<Segment id="29">
							<True/>
							<TreeModel functionName="regression" missingValueStrategy="defaultChild" splitCharacteristic="binarySplit" x-mathContext="float">
								<MiningSchema>
									<MiningField name="Age"/>
									<MiningField name="SibSp"/>
									<MiningField name="Fare"/>
								</MiningSchema>
								<Node id="1" defaultChild="2">
									<True/>
									<Node id="2" defaultChild="4">
										<SimplePredicate field="SibSp" operator="lessThan" value="2.5"/>
										<Node id="4" defaultChild="8">
											<SimplePredicate field="Age" operator="lessThan" value="13.5"/>
											<Node id="8" score="0.105399095">
												<SimplePredicate field="Age" operator="lessThan" value="8.5"/>
											</Node>
											<Node id="9" score="0.03168152">
												<SimplePredicate field="Age" operator="greaterOrEqual" value="8.5"/>
											</Node>
										</Node>
										<Node id="5" defaultChild="10">
											<SimplePredicate field="Age" operator="greaterOrEqual" value="13.5"/>
											<Node id="10" score="-0.013598867">
												<SimplePredicate field="Fare" operator="lessThan" value="52.2771"/>
											</Node>
											<Node id="11" score="0.029603181">
												<SimplePredicate field="Fare" operator="greaterOrEqual" value="52.2771"/>
											</Node>
										</Node>
									</Node>
									<Node id="3" defaultChild="6">
										<SimplePredicate field="SibSp" operator="greaterOrEqual" value="2.5"/>
										<Node id="6" defaultChild="12">
											<SimplePredicate field="Fare" operator="lessThan" value="35.5375"/>
											<Node id="12" score="-0.06569164">
												<SimplePredicate field="SibSp" operator="lessThan" value="3.5"/>
											</Node>
											<Node id="13" score="0.013218554">
												<SimplePredicate field="SibSp" operator="greaterOrEqual" value="3.5"/>
											</Node>
										</Node>
										<Node id="7" score="-0.08289166">
											<SimplePredicate field="Fare" operator="greaterOrEqual" value="35.5375"/>
										</Node>
									</Node>
								</Node>
							</TreeModel>
						</Segment>
						<Segment id="30">
							<True/>
							<TreeModel functionName="regression" missingValueStrategy="defaultChild" splitCharacteristic="binarySplit" x-mathContext="float">
								<MiningSchema>
									<MiningField name="Age"/>
									<MiningField name="SibSp"/>
									<MiningField name="Fare"/>
								</MiningSchema>
								<Node id="1" defaultChild="2">
									<True/>
									<Node id="2" defaultChild="4">
										<SimplePredicate field="SibSp" operator="lessThan" value="2.5"/>
										<Node id="4" defaultChild="8">
											<SimplePredicate field="Age" operator="lessThan" value="13.5"/>
											<Node id="8" score="0.101914145">
												<SimplePredicate field="Age" operator="lessThan" value="8.5"/>
											</Node>
											<Node id="9" score="0.029944513">
												<SimplePredicate field="Age" operator="greaterOrEqual" value="8.5"/>
											</Node>
										</Node>
										<Node id="5" defaultChild="10">
											<SimplePredicate field="Age" operator="greaterOrEqual" value="13.5"/>
											<Node id="10" score="-0.018737365">
												<SimplePredicate field="Fare" operator="lessThan" value="18.375"/>
											</Node>
											<Node id="11" score="0.012967328">
												<SimplePredicate field="Fare" operator="greaterOrEqual" value="18.375"/>
											</Node>
										</Node>
									</Node>
									<Node id="3" defaultChild="6">
										<SimplePredicate field="SibSp" operator="greaterOrEqual" value="2.5"/>
										<Node id="6" defaultChild="12">
											<SimplePredicate field="Age" operator="lessThan" value="16.5"/>
											<Node id="12" score="-0.09647243">
												<SimplePredicate field="Fare" operator="lessThan" value="31.33125"/>
											</Node>
											<Node id="13" score="-0.016483514">
												<SimplePredicate field="Fare" operator="greaterOrEqual" value="31.33125"/>
											</Node>
										</Node>
										<Node id="7" score="-0.017045807">
											<SimplePredicate field="Age" operator="greaterOrEqual" value="16.5"/>
										</Node>
									</Node>
								</Node>
							</TreeModel>
						</Segment>
						<Segment id="31">
							<True/>
							<TreeModel functionName="regression" missingValueStrategy="defaultChild" splitCharacteristic="binarySplit" x-mathContext="float">
								<MiningSchema>
									<MiningField name="Pclass"/>
									<MiningField name="Age"/>
									<MiningField name="SibSp"/>
									<MiningField name="Fare"/>
									<MiningField name="Female"/>
								</MiningSchema>
								<Node id="1" defaultChild="2">
									<True/>
									<Node id="2" defaultChild="4">
										<SimplePredicate field="Female" operator="lessThan" value="0.5"/>
										<Node id="4" defaultChild="8">
											<SimplePredicate field="Fare" operator="lessThan" value="7.7625"/>
											<Node id="8" score="0.002604099">
												<SimplePredicate field="Age" operator="lessThan" value="27.5"/>
											</Node>
											<Node id="9" score="-0.09208121">
												<SimplePredicate field="Age" operator="greaterOrEqual" value="27.5"/>
											</Node>
										</Node>
										<Node id="5" defaultChild="10">
											<SimplePredicate field="Fare" operator="greaterOrEqual" value="7.7625"/>
											<Node id="10" score="-0.0011437974">
												<SimplePredicate field="SibSp" operator="lessThan" value="1.5"/>
											</Node>
											<Node id="11" score="-0.054199226">
												<SimplePredicate field="SibSp" operator="greaterOrEqual" value="1.5"/>
											</Node>
										</Node>
									</Node>
									<Node id="3" defaultChild="6">
										<SimplePredicate field="Female" operator="greaterOrEqual" value="0.5"/>
										<Node id="6" defaultChild="12">
											<SimplePredicate field="Pclass" operator="lessThan" value="2.5"/>
											<Node id="12" score="0.019688625">
												<SimplePredicate field="Fare" operator="lessThan" value="28.85625"/>
											</Node>
											<Node id="13" score="0.074960195">
												<SimplePredicate field="Fare" operator="greaterOrEqual" value="28.85625"/>
											</Node>
										</Node>
										<Node id="7" defaultChild="14">
											<SimplePredicate field="Pclass" operator="greaterOrEqual" value="2.5"/>
											<Node id="14" score="0.042515226">
												<SimplePredicate field="Fare" operator="lessThan" value="8.0396"/>
											</Node>
											<Node id="15" score="-0.023608174">
												<SimplePredicate field="Fare" operator="greaterOrEqual" value="8.0396"/>
											</Node>
										</Node>
									</Node>
								</Node>
							</TreeModel>
						</Segment>
						<Segment id="32">
							<True/>
							<TreeModel functionName="regression" missingValueStrategy="defaultChild" splitCharacteristic="binarySplit" x-mathContext="float">
								<MiningSchema>
									<MiningField name="Age"/>
									<MiningField name="SibSp"/>
									<MiningField name="Fare"/>
								</MiningSchema>
								<Node id="1" defaultChild="2">
									<True/>
									<Node id="2" defaultChild="4">
										<SimplePredicate field="Age" operator="lessThan" value="6.5"/>
										<Node id="4" score="0.09448267">
											<SimplePredicate field="SibSp" operator="lessThan" value="2.5"/>
										</Node>
										<Node id="5" score="-0.026114685">
											<SimplePredicate field="SibSp" operator="greaterOrEqual" value="2.5"/>
										</Node>
									</Node>
									<Node id="3" defaultChild="6">
										<SimplePredicate field="Age" operator="greaterOrEqual" value="6.5"/>
										<Node id="6" defaultChild="8">
											<SimplePredicate field="Age" operator="lessThan" value="26.5"/>
											<Node id="8" score="0.025098944">
												<SimplePredicate field="Fare" operator="lessThan" value="7.74165"/>
											</Node>
											<Node id="9" score="-0.03633165">
												<SimplePredicate field="Fare" operator="greaterOrEqual" value="7.74165"/>
											</Node>
										</Node>
										<Node id="7" defaultChild="10">
											<SimplePredicate field="Age" operator="greaterOrEqual" value="26.5"/>
											<Node id="10" score="0.12650464">
												<SimplePredicate field="Age" operator="lessThan" value="27.5"/>
											</Node>
											<Node id="11" score="-0.0027572548">
												<SimplePredicate field="Age" operator="greaterOrEqual" value="27.5"/>
											</Node>
										</Node>
									</Node>
								</Node>
							</TreeModel>
						</Segment>
						<Segment id="33">
							<True/>
							<TreeModel functionName="regression" missingValueStrategy="defaultChild" splitCharacteristic="binarySplit" x-mathContext="float">
								<MiningSchema>
									<MiningField name="Pclass"/>
									<MiningField name="Age"/>
									<MiningField name="SibSp"/>
									<MiningField name="Fare"/>
									<MiningField name="Female"/>
								</MiningSchema>
								<Node id="1" defaultChild="2">
									<True/>
									<Node id="2" defaultChild="4">
										<SimplePredicate field="Female" operator="lessThan" value="0.5"/>
										<Node id="4" defaultChild="8">
											<SimplePredicate field="Fare" operator="lessThan" value="7.7625"/>
											<Node id="8" score="3.180889E-4">
												<SimplePredicate field="Age" operator="lessThan" value="27.5"/>
											</Node>
											<Node id="9" score="-0.09006029">
												<SimplePredicate field="Age" operator="greaterOrEqual" value="27.5"/>
											</Node>
										</Node>
										<Node id="5" defaultChild="10">
											<SimplePredicate field="Fare" operator="greaterOrEqual" value="7.7625"/>
											<Node id="10" score="-0.0016259687">
												<SimplePredicate field="SibSp" operator="lessThan" value="2.5"/>
											</Node>
											<Node id="11" score="-0.06461751">
												<SimplePredicate field="SibSp" operator="greaterOrEqual" value="2.5"/>
											</Node>
										</Node>
									</Node>
									<Node id="3" defaultChild="6">
										<SimplePredicate field="Female" operator="greaterOrEqual" value="0.5"/>
										<Node id="6" defaultChild="12">
											<SimplePredicate field="Pclass" operator="lessThan" value="2.5"/>
											<Node id="12" score="0.018891888">
												<SimplePredicate field="Fare" operator="lessThan" value="28.85625"/>
											</Node>
											<Node id="13" score="0.072965845">
												<SimplePredicate field="Fare" operator="greaterOrEqual" value="28.85625"/>
											</Node>
										</Node>
										<Node id="7" defaultChild="14">
											<SimplePredicate field="Pclass" operator="greaterOrEqual" value="2.5"/>
											<Node id="14" score="0.039730683">
												<SimplePredicate field="Fare" operator="lessThan" value="8.0396"/>
											</Node>
											<Node id="15" score="-0.02134829">
												<SimplePredicate field="Fare" operator="greaterOrEqual" value="8.0396"/>
											</Node>
										</Node>
									</Node>
								</Node>
							</TreeModel>
						</Segment>
						<Segment id="34">
							<True/>
							<TreeModel functionName="regression" missingValueStrategy="defaultChild" splitCharacteristic="binarySplit" x-mathContext="float">
								<MiningSchema>
									<MiningField name="Age"/>
									<MiningField name="SibSp"/>
									<MiningField name="Fare"/>
								</MiningSchema>
								<Node id="1" defaultChild="2">
									<True/>
									<Node id="2" defaultChild="4">
										<SimplePredicate field="Age" operator="lessThan" value="6.5"/>
										<Node id="4" score="0.09189423">
											<SimplePredicate field="SibSp" operator="lessThan" value="2.5"/>
										</Node>
										<Node id="5" score="-0.021697678">
											<SimplePredicate field="SibSp" operator="greaterOrEqual" value="2.5"/>
										</Node>
									</Node>
									<Node id="3" defaultChild="6">
										<SimplePredicate field="Age" operator="greaterOrEqual" value="6.5"/>
										<Node id="6" defaultChild="8">
											<SimplePredicate field="Age" operator="lessThan" value="26.5"/>
											<Node id="8" score="0.021956747">
												<SimplePredicate field="Fare" operator="lessThan" value="7.74165"/>
											</Node>
											<Node id="9" score="-0.03350249">
												<SimplePredicate field="Fare" operator="greaterOrEqual" value="7.74165"/>
											</Node>
										</Node>
										<Node id="7" defaultChild="10">
											<SimplePredicate field="Age" operator="greaterOrEqual" value="26.5"/>
											<Node id="10" score="0.11510306">
												<SimplePredicate field="Age" operator="lessThan" value="27.5"/>
											</Node>
											<Node id="11" score="-0.0022386215">
												<SimplePredicate field="Age" operator="greaterOrEqual" value="27.5"/>
											</Node>
										</Node>
									</Node>
								</Node>
							</TreeModel>
						</Segment>
						<Segment id="35">
							<True/>
							<TreeModel functionName="regression" missingValueStrategy="defaultChild" splitCharacteristic="binarySplit" x-mathContext="float">
								<MiningSchema>
									<MiningField name="Age"/>
									<MiningField name="SibSp"/>
									<MiningField name="Fare"/>
								</MiningSchema>
								<Node id="1" defaultChild="2">
									<True/>
									<Node id="2" defaultChild="4">
										<SimplePredicate field="Age" operator="lessThan" value="6.5"/>
										<Node id="4" score="0.08914639">
											<SimplePredicate field="SibSp" operator="lessThan" value="2.5"/>
										</Node>
										<Node id="5" score="-0.02041918">
											<SimplePredicate field="SibSp" operator="greaterOrEqual" value="2.5"/>
										</Node>
									</Node>
									<Node id="3" defaultChild="6">
										<SimplePredicate field="Age" operator="greaterOrEqual" value="6.5"/>
										<Node id="6" defaultChild="8">
											<SimplePredicate field="Age" operator="lessThan" value="26.5"/>
											<Node id="8" score="0.020010194">
												<SimplePredicate field="Fare" operator="lessThan" value="7.74165"/>
											</Node>
											<Node id="9" score="-0.030489592">
												<SimplePredicate field="Fare" operator="greaterOrEqual" value="7.74165"/>
											</Node>
										</Node>
										<Node id="7" defaultChild="10">
											<SimplePredicate field="Age" operator="greaterOrEqual" value="26.5"/>
											<Node id="10" score="0.104990676">
												<SimplePredicate field="Age" operator="lessThan" value="27.5"/>
											</Node>
											<Node id="11" score="-0.0020194058">
												<SimplePredicate field="Age" operator="greaterOrEqual" value="27.5"/>
											</Node>
										</Node>
									</Node>
								</Node>
							</TreeModel>
						</Segment>
						<Segment id="36">
							<True/>
							<TreeModel functionName="regression" missingValueStrategy="defaultChild" splitCharacteristic="binarySplit" x-mathContext="float">
								<MiningSchema>
									<MiningField name="Pclass"/>
									<MiningField name="Age"/>
									<MiningField name="Fare"/>
									<MiningField name="Female"/>
								</MiningSchema>
								<Node id="1" defaultChild="2">
									<True/>
									<Node id="2" defaultChild="4">
										<SimplePredicate field="Female" operator="lessThan" value="0.5"/>
										<Node id="4" defaultChild="8">
											<SimplePredicate field="Fare" operator="lessThan" value="7.7625"/>
											<Node id="8" score="-0.0032207877">
												<SimplePredicate field="Age" operator="lessThan" value="27.5"/>
											</Node>
											<Node id="9" score="-0.08805592">
												<SimplePredicate field="Age" operator="greaterOrEqual" value="27.5"/>
											</Node>
										</Node>
										<Node id="5" defaultChild="10">
											<SimplePredicate field="Fare" operator="greaterOrEqual" value="7.7625"/>
											<Node id="10" score="0.060918737">
												<SimplePredicate field="Fare" operator="lessThan" value="7.7979"/>
											</Node>
											<Node id="11" score="-0.0076264604">
												<SimplePredicate field="Fare" operator="greaterOrEqual" value="7.7979"/>
											</Node>
										</Node>
									</Node>
									<Node id="3" defaultChild="6">
										<SimplePredicate field="Female" operator="greaterOrEqual" value="0.5"/>
										<Node id="6" defaultChild="12">
											<SimplePredicate field="Pclass" operator="lessThan" value="2.5"/>
											<Node id="12" score="0.058310132">
												<SimplePredicate field="Age" operator="lessThan" value="43.5"/>
											</Node>
											<Node id="13" score="-0.004469909">
												<SimplePredicate field="Age" operator="greaterOrEqual" value="43.5"/>
											</Node>
										</Node>
										<Node id="7" defaultChild="14">
											<SimplePredicate field="Pclass" operator="greaterOrEqual" value="2.5"/>
											<Node id="14" score="0.041604836">
												<SimplePredicate field="Fare" operator="lessThan" value="7.9021"/>
											</Node>
											<Node id="15" score="-0.01744533">
												<SimplePredicate field="Fare" operator="greaterOrEqual" value="7.9021"/>
											</Node>
										</Node>
									</Node>
								</Node>
							</TreeModel>
						</Segment>
						<Segment id="37">
							<True/>
							<TreeModel functionName="regression" missingValueStrategy="defaultChild" splitCharacteristic="binarySplit" x-mathContext="float">
								<MiningSchema>
									<MiningField name="Pclass"/>
									<MiningField name="Age"/>
									<MiningField name="SibSp"/>
								</MiningSchema>
								<Node id="1" defaultChild="2">
									<True/>
									<Node id="2" defaultChild="4">
										<SimplePredicate field="Age" operator="lessThan" value="36.5"/>
										<Node id="4" defaultChild="8">
											<SimplePredicate field="Age" operator="lessThan" value="30.75"/>
											<Node id="8" score="0.048182115">
												<SimplePredicate field="Age" operator="lessThan" value="6.5"/>
											</Node>
											<Node id="9" score="-0.01069851">
												<SimplePredicate field="Age" operator="greaterOrEqual" value="6.5"/>
											</Node>
										</Node>
										<Node id="5" defaultChild="10">
											<SimplePredicate field="Age" operator="greaterOrEqual" value="30.75"/>
											<Node id="10" score="0.091543205">
												<SimplePredicate field="SibSp" operator="lessThan" value="0.5"/>
											</Node>
											<Node id="11" score="0.012481033">
												<SimplePredicate field="SibSp" operator="greaterOrEqual" value="0.5"/>
											</Node>
										</Node>
									</Node>
									<Node id="3" defaultChild="6">
										<SimplePredicate field="Age" operator="greaterOrEqual" value="36.5"/>
										<Node id="6" defaultChild="12">
											<SimplePredicate field="Pclass" operator="lessThan" value="1.5"/>
											<Node id="12" score="-0.026197085">
												<SimplePredicate field="SibSp" operator="lessThan" value="0.5"/>
											</Node>
											<Node id="13" score="0.028635884">
												<SimplePredicate field="SibSp" operator="greaterOrEqual" value="0.5"/>
											</Node>
										</Node>
										<Node id="7" defaultChild="14">
											<SimplePredicate field="Pclass" operator="greaterOrEqual" value="1.5"/>
											<Node id="14" score="-0.0199237">
												<SimplePredicate field="SibSp" operator="lessThan" value="0.5"/>
											</Node>
											<Node id="15" score="-0.09650376">
												<SimplePredicate field="SibSp" operator="greaterOrEqual" value="0.5"/>
											</Node>
										</Node>
									</Node>
								</Node>
							</TreeModel>
						</Segment>
						<Segment id="38">
							<True/>
							<TreeModel functionName="regression" missingValueStrategy="defaultChild" splitCharacteristic="binarySplit" x-mathContext="float">
								<MiningSchema>
									<MiningField name="SibSp"/>
									<MiningField name="Fare"/>
								</MiningSchema>
								<Node id="1" defaultChild="2">
									<True/>
									<Node id="2" defaultChild="4">
										<SimplePredicate field="Fare" operator="lessThan" value="7.13335"/>
										<Node id="4" score="-0.07183161">
											<SimplePredicate field="Fare" operator="lessThan" value="6.9624996"/>
										</Node>
										<Node id="5" score="-0.020897554">
											<SimplePredicate field="Fare" operator="greaterOrEqual" value="6.9624996"/>
										</Node>
									</Node>
									<Node id="3" defaultChild="6">
										<SimplePredicate field="Fare" operator="greaterOrEqual" value="7.13335"/>
										<Node id="6" score="0.09337644">
											<SimplePredicate field="Fare" operator="lessThan" value="7.2271"/>
										</Node>
										<Node id="7" defaultChild="8">
											<SimplePredicate field="Fare" operator="greaterOrEqual" value="7.2271"/>
											<Node id="8" score="0.002604874">
												<SimplePredicate field="SibSp" operator="lessThan" value="2.5"/>
											</Node>
											<Node id="9" score="-0.04717307">
												<SimplePredicate field="SibSp" operator="greaterOrEqual" value="2.5"/>
											</Node>
										</Node>
									</Node>
								</Node>
							</TreeModel>
						</Segment>
						<Segment id="39">
							<True/>
							<TreeModel functionName="regression" missingValueStrategy="defaultChild" splitCharacteristic="binarySplit" x-mathContext="float">
								<MiningSchema>
									<MiningField name="Pclass"/>
									<MiningField name="Age"/>
									<MiningField name="Fare"/>
									<MiningField name="Female"/>
								</MiningSchema>
								<Node id="1" defaultChild="2">
									<True/>
									<Node id="2" defaultChild="4">
										<SimplePredicate field="Female" operator="lessThan" value="0.5"/>
										<Node id="4" defaultChild="8">
											<SimplePredicate field="Fare" operator="lessThan" value="7.7625"/>
											<Node id="8" score="-0.0016168182">
												<SimplePredicate field="Age" operator="lessThan" value="27.5"/>
											</Node>
											<Node id="9" score="-0.08581417">
												<SimplePredicate field="Age" operator="greaterOrEqual" value="27.5"/>
											</Node>
										</Node>
										<Node id="5" defaultChild="10">
											<SimplePredicate field="Fare" operator="greaterOrEqual" value="7.7625"/>
											<Node id="10" score="8.598704E-4">
												<SimplePredicate field="Age" operator="lessThan" value="53.0"/>
											</Node>
											<Node id="11" score="-0.04621972">
												<SimplePredicate field="Age" operator="greaterOrEqual" value="53.0"/>
											</Node>
										</Node>
									</Node>
									<Node id="3" defaultChild="6">
										<SimplePredicate field="Female" operator="greaterOrEqual" value="0.5"/>
										<Node id="6" defaultChild="12">
											<SimplePredicate field="Pclass" operator="lessThan" value="2.5"/>
											<Node id="12" score="0.0155802015">
												<SimplePredicate field="Fare" operator="lessThan" value="28.85625"/>
											</Node>
											<Node id="13" score="0.069822624">
												<SimplePredicate field="Fare" operator="greaterOrEqual" value="28.85625"/>
											</Node>
										</Node>
										<Node id="7" defaultChild="14">
											<SimplePredicate field="Pclass" operator="greaterOrEqual" value="2.5"/>
											<Node id="14" score="0.07046007">
												<SimplePredicate field="Fare" operator="lessThan" value="7.74375"/>
											</Node>
											<Node id="15" score="-0.007752441">
												<SimplePredicate field="Fare" operator="greaterOrEqual" value="7.74375"/>
											</Node>
										</Node>
									</Node>
								</Node>
							</TreeModel>
						</Segment>
						<Segment id="40">
							<True/>
							<TreeModel functionName="regression" missingValueStrategy="defaultChild" splitCharacteristic="binarySplit" x-mathContext="float">
								<MiningSchema>
									<MiningField name="Age"/>
									<MiningField name="SibSp"/>
								</MiningSchema>
								<Node id="1" defaultChild="2">
									<True/>
									<Node id="2" defaultChild="4">
										<SimplePredicate field="Age" operator="lessThan" value="6.5"/>
										<Node id="4" score="0.08544899">
											<SimplePredicate field="SibSp" operator="lessThan" value="2.5"/>
										</Node>
										<Node id="5" score="-0.018480647">
											<SimplePredicate field="SibSp" operator="greaterOrEqual" value="2.5"/>
										</Node>
									</Node>
									<Node id="3" defaultChild="6">
										<SimplePredicate field="Age" operator="greaterOrEqual" value="6.5"/>
										<Node id="6" defaultChild="8">
											<SimplePredicate field="Age" operator="lessThan" value="26.5"/>
											<Node id="8" score="-0.013408012">
												<SimplePredicate field="SibSp" operator="lessThan" value="1.5"/>
											</Node>
											<Node id="9" score="-0.06326259">
												<SimplePredicate field="SibSp" operator="greaterOrEqual" value="1.5"/>
											</Node>
										</Node>
										<Node id="7" defaultChild="10">
											<SimplePredicate field="Age" operator="greaterOrEqual" value="26.5"/>
											<Node id="10" score="0.0972317">
												<SimplePredicate field="Age" operator="lessThan" value="27.5"/>
											</Node>
											<Node id="11" score="-9.87221E-4">
												<SimplePredicate field="Age" operator="greaterOrEqual" value="27.5"/>
											</Node>
										</Node>
									</Node>
								</Node>
							</TreeModel>
						</Segment>
						<Segment id="41">
							<True/>
							<TreeModel functionName="regression" missingValueStrategy="defaultChild" splitCharacteristic="binarySplit" x-mathContext="float">
								<MiningSchema>
									<MiningField name="Pclass"/>
									<MiningField name="Age"/>
									<MiningField name="SibSp"/>
									<MiningField name="Fare"/>
								</MiningSchema>
								<Node id="1" defaultChild="2">
									<True/>
									<Node id="2" defaultChild="4">
										<SimplePredicate field="Age" operator="lessThan" value="36.5"/>
										<Node id="4" defaultChild="8">
											<SimplePredicate field="Age" operator="lessThan" value="30.75"/>
											<Node id="8" score="-0.0016450313">
												<SimplePredicate field="Fare" operator="lessThan" value="134.64165"/>
											</Node>
											<Node id="9" score="-0.08325594">
												<SimplePredicate field="Fare" operator="greaterOrEqual" value="134.64165"/>
											</Node>
										</Node>
										<Node id="5" defaultChild="10">
											<SimplePredicate field="Age" operator="greaterOrEqual" value="30.75"/>
											<Node id="10" score="0.08198523">
												<SimplePredicate field="SibSp" operator="lessThan" value="0.5"/>
											</Node>
											<Node id="11" score="0.011090293">
												<SimplePredicate field="SibSp" operator="greaterOrEqual" value="0.5"/>
											</Node>
										</Node>
									</Node>
									<Node id="3" defaultChild="6">
										<SimplePredicate field="Age" operator="greaterOrEqual" value="36.5"/>
										<Node id="6" defaultChild="12">
											<SimplePredicate field="Pclass" operator="lessThan" value="1.5"/>
											<Node id="12" score="0.009252573">
												<SimplePredicate field="Age" operator="lessThan" value="60.5"/>
											</Node>
											<Node id="13" score="-0.051847">
												<SimplePredicate field="Age" operator="greaterOrEqual" value="60.5"/>
											</Node>
										</Node>
										<Node id="7" defaultChild="14">
											<SimplePredicate field="Pclass" operator="greaterOrEqual" value="1.5"/>
											<Node id="14" score="-0.017298518">
												<SimplePredicate field="SibSp" operator="lessThan" value="0.5"/>
											</Node>
											<Node id="15" score="-0.09252672">
												<SimplePredicate field="SibSp" operator="greaterOrEqual" value="0.5"/>
											</Node>
										</Node>
									</Node>
								</Node>
							</TreeModel>
						</Segment>
						<Segment id="42">
							<True/>
							<TreeModel functionName="regression" missingValueStrategy="defaultChild" splitCharacteristic="binarySplit" x-mathContext="float">
								<MiningSchema>
									<MiningField name="Age"/>
									<MiningField name="SibSp"/>
									<MiningField name="Fare"/>
									<MiningField name="Female"/>
								</MiningSchema>
								<Node id="1" defaultChild="2">
									<True/>
									<Node id="2" defaultChild="4">
										<SimplePredicate field="Female" operator="lessThan" value="0.5"/>
										<Node id="4" defaultChild="8">
											<SimplePredicate field="Fare" operator="lessThan" value="7.7625"/>
											<Node id="8" score="-7.096843E-4">
												<SimplePredicate field="Age" operator="lessThan" value="27.5"/>
											</Node>
											<Node id="9" score="-0.084119305">
												<SimplePredicate field="Age" operator="greaterOrEqual" value="27.5"/>
											</Node>
										</Node>
										<Node id="5" defaultChild="10">
											<SimplePredicate field="Fare" operator="greaterOrEqual" value="7.7625"/>
											<Node id="10" score="0.055503767">
												<SimplePredicate field="Fare" operator="lessThan" value="7.7979"/>
											</Node>
											<Node id="11" score="-0.006973292">
												<SimplePredicate field="Fare" operator="greaterOrEqual" value="7.7979"/>
											</Node>
										</Node>
									</Node>
									<Node id="3" defaultChild="6">
										<SimplePredicate field="Female" operator="greaterOrEqual" value="0.5"/>
										<Node id="6" defaultChild="12">
											<SimplePredicate field="Fare" operator="lessThan" value="15.3729"/>
											<Node id="12" score="0.013319639">
												<SimplePredicate field="Fare" operator="lessThan" value="14.15625"/>
											</Node>
											<Node id="13" score="-0.09570538">
												<SimplePredicate field="Fare" operator="greaterOrEqual" value="14.15625"/>
											</Node>
										</Node>
										<Node id="7" defaultChild="14">
											<SimplePredicate field="Fare" operator="greaterOrEqual" value="15.3729"/>
											<Node id="14" score="0.046570897">
												<SimplePredicate field="SibSp" operator="lessThan" value="2.5"/>
											</Node>
											<Node id="15" score="-0.0319099">
												<SimplePredicate field="SibSp" operator="greaterOrEqual" value="2.5"/>
											</Node>
										</Node>
									</Node>
								</Node>
							</TreeModel>
						</Segment>
						<Segment id="43">
							<True/>
							<TreeModel functionName="regression" missingValueStrategy="defaultChild" splitCharacteristic="binarySplit" x-mathContext="float">
								<MiningSchema>
									<MiningField name="Age"/>
									<MiningField name="SibSp"/>
								</MiningSchema>
								<Node id="1" defaultChild="2">
									<True/>
									<Node id="2" defaultChild="4">
										<SimplePredicate field="Age" operator="lessThan" value="6.5"/>
										<Node id="4" score="0.082855456">
											<SimplePredicate field="SibSp" operator="lessThan" value="2.5"/>
										</Node>
										<Node id="5" score="-0.016344706">
											<SimplePredicate field="SibSp" operator="greaterOrEqual" value="2.5"/>
										</Node>
									</Node>
									<Node id="3" defaultChild="6">
										<SimplePredicate field="Age" operator="greaterOrEqual" value="6.5"/>
										<Node id="6" defaultChild="8">
